digraph Tree {
node [shape=box] ;
0 [label="year <= 2010.5\nentropy = 0.887\nsamples = 4221\nvalue = [2934, 1287]"] ;
1 [label="loudness <= 0.772\nentropy = 0.79\nsamples = 2139\nvalue = [1632, 507]"] ;
0 -> 1 [labeldistance=2.5, labelangle=45, headlabel="True"] ;
2 [label="entropy = 0.311\nsamples = 465\nvalue = [439, 26]"] ;
1 -> 2 ;
3 [label="entropy = 0.865\nsamples = 1674\nvalue = [1193, 481]"] ;
1 -> 3 ;
4 [label="energy <= 0.629\nentropy = 0.954\nsamples = 2082\nvalue = [1302, 780]"] ;
0 -> 4 [labeldistance=2.5, labelangle=-45, headlabel="False"] ;
5 [label="entropy = 0.773\nsamples = 647\nvalue = [500, 147]"] ;
4 -> 5 ;
6 [label="explicit_1 <= 0.5\nentropy = 0.99\nsamples = 1435\nvalue = [802, 633]"] ;
4 -> 6 ;
7 [label="entropy = 0.996\nsamples = 1370\nvalue = [739, 631]"] ;
6 -> 7 ;
8 [label="entropy = 0.198\nsamples = 65\nvalue = [63, 2]"] ;
6 -> 8 ;
}