digraph Tree {
node [shape=box] ;
0 [label="loudness <= 0.797\nentropy = 0.887\nsamples = 4221\nvalue = [2934, 1287]"] ;
1 [label="entropy = 0.479\nsamples = 921\nvalue = [826, 95]"] ;
0 -> 1 [labeldistance=2.5, labelangle=45, headlabel="True"] ;
2 [label="explicit_1 <= 0.5\nentropy = 0.944\nsamples = 3300\nvalue = [2108, 1192]"] ;
0 -> 2 [labeldistance=2.5, labelangle=-45, headlabel="False"] ;
3 [label="entropy = 0.952\nsamples = 3202\nvalue = [2012, 1190]"] ;
2 -> 3 ;
4 [label="entropy = 0.144\nsamples = 98\nvalue = [96, 2]"] ;
2 -> 4 ;
}