digraph Tree {
node [shape=box] ;
0 [label="loudness <= 0.821\nentropy = 0.585\nsamples = 3708\nvalue = [3188, 520]"] ;
1 [label="entropy = 0.267\nsamples = 1144\nvalue = [1092, 52]"] ;
0 -> 1 [labeldistance=2.5, labelangle=45, headlabel="True"] ;
2 [label="year <= 2007.5\nentropy = 0.686\nsamples = 2564\nvalue = [2096, 468]"] ;
0 -> 2 [labeldistance=2.5, labelangle=-45, headlabel="False"] ;
3 [label="entropy = 0.0\nsamples = 861\nvalue = [861, 0]"] ;
2 -> 3 ;
4 [label="danceability <= 0.58\nentropy = 0.848\nsamples = 1703\nvalue = [1235, 468]"] ;
2 -> 4 ;
5 [label="entropy = 0.619\nsamples = 612\nvalue = [518, 94]"] ;
4 -> 5 ;
6 [label="entropy = 0.927\nsamples = 1091\nvalue = [717, 374]"] ;
4 -> 6 ;
}