digraph Tree {
node [shape=box] ;
0 [label="loudness <= 0.797\nentropy = 0.79\nsamples = 20618\nvalue = [15734, 4884]"] ;
1 [label="acousticness <= 0.718\nentropy = 0.458\nsamples = 5507\nvalue = [4975, 532]"] ;
0 -> 1 [labeldistance=2.5, labelangle=45, headlabel="True"] ;
2 [label="danceability <= 0.637\nentropy = 0.568\nsamples = 3656\nvalue = [3166, 490]"] ;
1 -> 2 ;
3 [label="duration_ms <= 0.095\nentropy = 0.415\nsamples = 1960\nvalue = [1796, 164]"] ;
2 -> 3 ;
4 [label="liveness <= 0.301\nentropy = 0.06\nsamples = 285\nvalue = [283, 2]"] ;
3 -> 4 ;
5 [label="entropy = 0.0\nsamples = 211\nvalue = [211, 0]"] ;
4 -> 5 ;
6 [label="energy <= 0.522\nentropy = 0.179\nsamples = 74\nvalue = [72, 2]"] ;
4 -> 6 ;
7 [label="valence <= 0.597\nentropy = 0.426\nsamples = 23\nvalue = [21, 2]"] ;
6 -> 7 ;
8 [label="entropy = 0.0\nsamples = 15\nvalue = [15, 0]"] ;
7 -> 8 ;
9 [label="entropy = 0.811\nsamples = 8\nvalue = [6, 2]"] ;
7 -> 9 ;
10 [label="entropy = 0.0\nsamples = 51\nvalue = [51, 0]"] ;
6 -> 10 ;
11 [label="liveness <= 0.629\nentropy = 0.458\nsamples = 1675\nvalue = [1513, 162]"] ;
3 -> 11 ;
12 [label="loudness <= 0.745\nentropy = 0.493\nsamples = 1505\nvalue = [1343, 162]"] ;
11 -> 12 ;
13 [label="tempo <= 0.117\nentropy = 0.352\nsamples = 559\nvalue = [522, 37]"] ;
12 -> 13 ;
14 [label="entropy = 0.971\nsamples = 5\nvalue = [2, 3]"] ;
13 -> 14 ;
15 [label="entropy = 0.333\nsamples = 554\nvalue = [520, 34]"] ;
13 -> 15 ;
16 [label="duration_ms <= 0.16\nentropy = 0.563\nsamples = 946\nvalue = [821, 125]"] ;
12 -> 16 ;
17 [label="entropy = 0.62\nsamples = 668\nvalue = [565, 103]"] ;
16 -> 17 ;
18 [label="entropy = 0.399\nsamples = 278\nvalue = [256, 22]"] ;
16 -> 18 ;
19 [label="entropy = 0.0\nsamples = 170\nvalue = [170, 0]"] ;
11 -> 19 ;
20 [label="year <= 2007.5\nentropy = 0.706\nsamples = 1696\nvalue = [1370, 326]"] ;
2 -> 20 ;
21 [label="duration_ms <= 0.121\nentropy = 0.47\nsamples = 658\nvalue = [592, 66]"] ;
20 -> 21 ;
22 [label="danceability <= 0.931\nentropy = 0.211\nsamples = 210\nvalue = [203, 7]"] ;
21 -> 22 ;
23 [label="duration_ms <= 0.101\nentropy = 0.166\nsamples = 204\nvalue = [199, 5]"] ;
22 -> 23 ;
24 [label="entropy = 0.0\nsamples = 96\nvalue = [96, 0]"] ;
23 -> 24 ;
25 [label="entropy = 0.27\nsamples = 108\nvalue = [103, 5]"] ;
23 -> 25 ;
26 [label="entropy = 0.918\nsamples = 6\nvalue = [4, 2]"] ;
22 -> 26 ;
27 [label="explicit_0 <= 0.5\nentropy = 0.562\nsamples = 448\nvalue = [389, 59]"] ;
21 -> 27 ;
28 [label="valence <= 0.341\nentropy = 0.874\nsamples = 51\nvalue = [36, 15]"] ;
27 -> 28 ;
29 [label="entropy = 0.0\nsamples = 7\nvalue = [7, 0]"] ;
28 -> 29 ;
30 [label="entropy = 0.926\nsamples = 44\nvalue = [29, 15]"] ;
28 -> 30 ;
31 [label="liveness <= 0.126\nentropy = 0.502\nsamples = 397\nvalue = [353, 44]"] ;
27 -> 31 ;
32 [label="entropy = 0.611\nsamples = 246\nvalue = [209, 37]"] ;
31 -> 32 ;
33 [label="entropy = 0.271\nsamples = 151\nvalue = [144, 7]"] ;
31 -> 33 ;
34 [label="instrumentalness <= 0.683\nentropy = 0.812\nsamples = 1038\nvalue = [778, 260]"] ;
20 -> 34 ;
35 [label="loudness <= 0.726\nentropy = 0.742\nsamples = 855\nvalue = [675, 180]"] ;
34 -> 35 ;
36 [label="acousticness <= 0.346\nentropy = 0.438\nsamples = 166\nvalue = [151, 15]"] ;
35 -> 36 ;
37 [label="entropy = 0.645\nsamples = 73\nvalue = [61, 12]"] ;
36 -> 37 ;
38 [label="entropy = 0.206\nsamples = 93\nvalue = [90, 3]"] ;
36 -> 38 ;
39 [label="duration_ms <= 0.204\nentropy = 0.794\nsamples = 689\nvalue = [524, 165]"] ;
35 -> 39 ;
40 [label="entropy = 0.814\nsamples = 655\nvalue = [490, 165]"] ;
39 -> 40 ;
41 [label="entropy = 0.0\nsamples = 34\nvalue = [34, 0]"] ;
39 -> 41 ;
42 [label="duration_ms <= 0.121\nentropy = 0.989\nsamples = 183\nvalue = [103, 80]"] ;
34 -> 42 ;
43 [label="speechiness <= 0.033\nentropy = 0.276\nsamples = 42\nvalue = [40, 2]"] ;
42 -> 43 ;
44 [label="entropy = 0.971\nsamples = 5\nvalue = [3, 2]"] ;
43 -> 44 ;
45 [label="entropy = 0.0\nsamples = 37\nvalue = [37, 0]"] ;
43 -> 45 ;
46 [label="duration_ms <= 0.145\nentropy = 0.992\nsamples = 141\nvalue = [63, 78]"] ;
42 -> 46 ;
47 [label="entropy = 0.767\nsamples = 67\nvalue = [15, 52]"] ;
46 -> 47 ;
48 [label="entropy = 0.935\nsamples = 74\nvalue = [48, 26]"] ;
46 -> 48 ;
49 [label="danceability <= 0.609\nentropy = 0.156\nsamples = 1851\nvalue = [1809, 42]"] ;
1 -> 49 ;
50 [label="instrumentalness <= 0.0\nentropy = 0.083\nsamples = 1347\nvalue = [1333, 14]"] ;
49 -> 50 ;
51 [label="liveness <= 0.108\nentropy = 0.169\nsamples = 439\nvalue = [428, 11]"] ;
50 -> 51 ;
52 [label="valence <= 0.455\nentropy = 0.323\nsamples = 136\nvalue = [128, 8]"] ;
51 -> 52 ;
53 [label="tempo <= 0.579\nentropy = 0.426\nsamples = 92\nvalue = [84, 8]"] ;
52 -> 53 ;
54 [label="entropy = 0.295\nsamples = 77\nvalue = [73, 4]"] ;
53 -> 54 ;
55 [label="entropy = 0.837\nsamples = 15\nvalue = [11, 4]"] ;
53 -> 55 ;
56 [label="entropy = 0.0\nsamples = 44\nvalue = [44, 0]"] ;
52 -> 56 ;
57 [label="acousticness <= 0.745\nentropy = 0.08\nsamples = 303\nvalue = [300, 3]"] ;
51 -> 57 ;
58 [label="tempo <= 0.262\nentropy = 0.371\nsamples = 28\nvalue = [26, 2]"] ;
57 -> 58 ;
59 [label="entropy = 0.918\nsamples = 6\nvalue = [4, 2]"] ;
58 -> 59 ;
60 [label="entropy = 0.0\nsamples = 22\nvalue = [22, 0]"] ;
58 -> 60 ;
61 [label="tempo <= 0.764\nentropy = 0.035\nsamples = 275\nvalue = [274, 1]"] ;
57 -> 61 ;
62 [label="entropy = 0.0\nsamples = 259\nvalue = [259, 0]"] ;
61 -> 62 ;
63 [label="entropy = 0.337\nsamples = 16\nvalue = [15, 1]"] ;
61 -> 63 ;
64 [label="liveness <= 0.102\nentropy = 0.032\nsamples = 908\nvalue = [905, 3]"] ;
50 -> 64 ;
65 [label="liveness <= 0.1\nentropy = 0.099\nsamples = 233\nvalue = [230, 3]"] ;
64 -> 65 ;
66 [label="year <= 2016.5\nentropy = 0.043\nsamples = 215\nvalue = [214, 1]"] ;
65 -> 66 ;
67 [label="entropy = 0.0\nsamples = 191\nvalue = [191, 0]"] ;
66 -> 67 ;
68 [label="entropy = 0.25\nsamples = 24\nvalue = [23, 1]"] ;
66 -> 68 ;
69 [label="entropy = 0.503\nsamples = 18\nvalue = [16, 2]"] ;
65 -> 69 ;
70 [label="entropy = 0.0\nsamples = 675\nvalue = [675, 0]"] ;
64 -> 70 ;
71 [label="energy <= 0.274\nentropy = 0.31\nsamples = 504\nvalue = [476, 28]"] ;
49 -> 71 ;
72 [label="key_4 <= 0.5\nentropy = 0.076\nsamples = 214\nvalue = [212, 2]"] ;
71 -> 72 ;
73 [label="entropy = 0.0\nsamples = 200\nvalue = [200, 0]"] ;
72 -> 73 ;
74 [label="entropy = 0.592\nsamples = 14\nvalue = [12, 2]"] ;
72 -> 74 ;
75 [label="year <= 2004.5\nentropy = 0.435\nsamples = 290\nvalue = [264, 26]"] ;
71 -> 75 ;
76 [label="entropy = 0.0\nsamples = 59\nvalue = [59, 0]"] ;
75 -> 76 ;
77 [label="liveness <= 0.211\nentropy = 0.508\nsamples = 231\nvalue = [205, 26]"] ;
75 -> 77 ;
78 [label="speechiness <= 0.033\nentropy = 0.417\nsamples = 202\nvalue = [185, 17]"] ;
77 -> 78 ;
79 [label="entropy = 0.667\nsamples = 69\nvalue = [57, 12]"] ;
78 -> 79 ;
80 [label="entropy = 0.231\nsamples = 133\nvalue = [128, 5]"] ;
78 -> 80 ;
81 [label="instrumentalness <= 0.194\nentropy = 0.894\nsamples = 29\nvalue = [20, 9]"] ;
77 -> 81 ;
82 [label="entropy = 0.667\nsamples = 23\nvalue = [19, 4]"] ;
81 -> 82 ;
83 [label="entropy = 0.65\nsamples = 6\nvalue = [1, 5]"] ;
81 -> 83 ;
84 [label="year <= 2008.5\nentropy = 0.866\nsamples = 15111\nvalue = [10759, 4352]"] ;
0 -> 84 [labeldistance=2.5, labelangle=-45, headlabel="False"] ;
85 [label="explicit_1 <= 0.5\nentropy = 0.731\nsamples = 5648\nvalue = [4493, 1155]"] ;
84 -> 85 ;
86 [label="year <= 2005.5\nentropy = 0.673\nsamples = 4977\nvalue = [4097, 880]"] ;
85 -> 86 ;
87 [label="instrumentalness <= 0.007\nentropy = 0.566\nsamples = 2555\nvalue = [2215, 340]"] ;
86 -> 87 ;
88 [label="acousticness <= 0.374\nentropy = 0.597\nsamples = 2289\nvalue = [1957, 332]"] ;
87 -> 88 ;
89 [label="energy <= 0.904\nentropy = 0.646\nsamples = 1754\nvalue = [1465, 289]"] ;
88 -> 89 ;
90 [label="entropy = 0.678\nsamples = 1570\nvalue = [1289, 281]"] ;
89 -> 90 ;
91 [label="entropy = 0.258\nsamples = 184\nvalue = [176, 8]"] ;
89 -> 91 ;
92 [label="liveness <= 0.343\nentropy = 0.403\nsamples = 535\nvalue = [492, 43]"] ;
88 -> 92 ;
93 [label="entropy = 0.445\nsamples = 465\nvalue = [422, 43]"] ;
92 -> 93 ;
94 [label="entropy = 0.0\nsamples = 70\nvalue = [70, 0]"] ;
92 -> 94 ;
95 [label="loudness <= 0.852\nentropy = 0.195\nsamples = 266\nvalue = [258, 8]"] ;
87 -> 95 ;
96 [label="entropy = 0.0\nsamples = 166\nvalue = [166, 0]"] ;
95 -> 96 ;
97 [label="instrumentalness <= 0.226\nentropy = 0.402\nsamples = 100\nvalue = [92, 8]"] ;
95 -> 97 ;
98 [label="entropy = 0.538\nsamples = 65\nvalue = [57, 8]"] ;
97 -> 98 ;
99 [label="entropy = 0.0\nsamples = 35\nvalue = [35, 0]"] ;
97 -> 99 ;
100 [label="duration_ms <= 0.156\nentropy = 0.766\nsamples = 2422\nvalue = [1882, 540]"] ;
86 -> 100 ;
101 [label="duration_ms <= 0.086\nentropy = 0.795\nsamples = 2044\nvalue = [1554, 490]"] ;
100 -> 101 ;
102 [label="loudness <= 0.91\nentropy = 0.345\nsamples = 93\nvalue = [87, 6]"] ;
101 -> 102 ;
103 [label="entropy = 0.169\nsamples = 80\nvalue = [78, 2]"] ;
102 -> 103 ;
104 [label="entropy = 0.89\nsamples = 13\nvalue = [9, 4]"] ;
102 -> 104 ;
105 [label="liveness <= 0.274\nentropy = 0.808\nsamples = 1951\nvalue = [1467, 484]"] ;
101 -> 105 ;
106 [label="entropy = 0.84\nsamples = 1567\nvalue = [1145, 422]"] ;
105 -> 106 ;
107 [label="entropy = 0.638\nsamples = 384\nvalue = [322, 62]"] ;
105 -> 107 ;
108 [label="energy <= 0.407\nentropy = 0.564\nsamples = 378\nvalue = [328, 50]"] ;
100 -> 108 ;
109 [label="entropy = 0.989\nsamples = 16\nvalue = [9, 7]"] ;
108 -> 109 ;
110 [label="acousticness <= 0.208\nentropy = 0.526\nsamples = 362\nvalue = [319, 43]"] ;
108 -> 110 ;
111 [label="entropy = 0.643\nsamples = 208\nvalue = [174, 34]"] ;
110 -> 111 ;
112 [label="entropy = 0.321\nsamples = 154\nvalue = [145, 9]"] ;
110 -> 112 ;
113 [label="instrumentalness <= 0.0\nentropy = 0.976\nsamples = 671\nvalue = [396, 275]"] ;
85 -> 113 ;
114 [label="speechiness <= 0.15\nentropy = 0.996\nsamples = 506\nvalue = [271, 235]"] ;
113 -> 114 ;
115 [label="duration_ms <= 0.122\nentropy = 0.946\nsamples = 198\nvalue = [126, 72]"] ;
114 -> 115 ;
116 [label="loudness <= 0.911\nentropy = 0.65\nsamples = 54\nvalue = [45, 9]"] ;
115 -> 116 ;
117 [label="entropy = 0.359\nsamples = 44\nvalue = [41, 3]"] ;
116 -> 117 ;
118 [label="entropy = 0.971\nsamples = 10\nvalue = [4, 6]"] ;
116 -> 118 ;
119 [label="duration_ms <= 0.2\nentropy = 0.989\nsamples = 144\nvalue = [81, 63]"] ;
115 -> 119 ;
120 [label="entropy = 0.995\nsamples = 138\nvalue = [75, 63]"] ;
119 -> 120 ;
121 [label="entropy = 0.0\nsamples = 6\nvalue = [6, 0]"] ;
119 -> 121 ;
122 [label="acousticness <= 0.013\nentropy = 0.998\nsamples = 308\nvalue = [145, 163]"] ;
114 -> 122 ;
123 [label="year <= 2006.5\nentropy = 0.779\nsamples = 39\nvalue = [9, 30]"] ;
122 -> 123 ;
124 [label="entropy = 0.881\nsamples = 30\nvalue = [9, 21]"] ;
123 -> 124 ;
125 [label="entropy = 0.0\nsamples = 9\nvalue = [0, 9]"] ;
123 -> 125 ;
126 [label="energy <= 0.585\nentropy = 1.0\nsamples = 269\nvalue = [136, 133]"] ;
122 -> 126 ;
127 [label="entropy = 0.773\nsamples = 22\nvalue = [17, 5]"] ;
126 -> 127 ;
128 [label="entropy = 0.999\nsamples = 247\nvalue = [119, 128]"] ;
126 -> 128 ;
129 [label="acousticness <= 0.444\nentropy = 0.799\nsamples = 165\nvalue = [125, 40]"] ;
113 -> 129 ;
130 [label="duration_ms <= 0.1\nentropy = 0.829\nsamples = 153\nvalue = [113, 40]"] ;
129 -> 130 ;
131 [label="entropy = 0.0\nsamples = 11\nvalue = [11, 0]"] ;
130 -> 131 ;
132 [label="year <= 2006.5\nentropy = 0.858\nsamples = 142\nvalue = [102, 40]"] ;
130 -> 132 ;
133 [label="entropy = 0.915\nsamples = 112\nvalue = [75, 37]"] ;
132 -> 133 ;
134 [label="entropy = 0.469\nsamples = 30\nvalue = [27, 3]"] ;
132 -> 134 ;
135 [label="entropy = 0.0\nsamples = 12\nvalue = [12, 0]"] ;
129 -> 135 ;
136 [label="loudness <= 0.851\nentropy = 0.923\nsamples = 9463\nvalue = [6266, 3197]"] ;
84 -> 136 ;
137 [label="danceability <= 0.606\nentropy = 0.833\nsamples = 3444\nvalue = [2534, 910]"] ;
136 -> 137 ;
138 [label="duration_ms <= 0.09\nentropy = 0.659\nsamples = 1361\nvalue = [1129, 232]"] ;
137 -> 138 ;
139 [label="danceability <= 0.597\nentropy = 0.063\nsamples = 135\nvalue = [134, 1]"] ;
138 -> 139 ;
140 [label="entropy = 0.0\nsamples = 129\nvalue = [129, 0]"] ;
139 -> 140 ;
141 [label="entropy = 0.65\nsamples = 6\nvalue = [5, 1]"] ;
139 -> 141 ;
142 [label="duration_ms <= 0.154\nentropy = 0.698\nsamples = 1226\nvalue = [995, 231]"] ;
138 -> 142 ;
143 [label="instrumentalness <= 0.0\nentropy = 0.764\nsamples = 886\nvalue = [689, 197]"] ;
142 -> 143 ;
144 [label="entropy = 0.847\nsamples = 460\nvalue = [334, 126]"] ;
143 -> 144 ;
145 [label="entropy = 0.65\nsamples = 426\nvalue = [355, 71]"] ;
143 -> 145 ;
146 [label="danceability <= 0.383\nentropy = 0.469\nsamples = 340\nvalue = [306, 34]"] ;
142 -> 146 ;
147 [label="entropy = 0.113\nsamples = 66\nvalue = [65, 1]"] ;
146 -> 147 ;
148 [label="entropy = 0.531\nsamples = 274\nvalue = [241, 33]"] ;
146 -> 148 ;
149 [label="instrumentalness <= 0.192\nentropy = 0.91\nsamples = 2083\nvalue = [1405, 678]"] ;
137 -> 149 ;
150 [label="instrumentalness <= 0.0\nentropy = 0.886\nsamples = 1801\nvalue = [1254, 547]"] ;
149 -> 150 ;
151 [label="acousticness <= 0.071\nentropy = 0.937\nsamples = 1189\nvalue = [769, 420]"] ;
150 -> 151 ;
152 [label="entropy = 0.997\nsamples = 365\nvalue = [195, 170]"] ;
151 -> 152 ;
153 [label="entropy = 0.885\nsamples = 824\nvalue = [574, 250]"] ;
151 -> 153 ;
154 [label="valence <= 0.87\nentropy = 0.737\nsamples = 612\nvalue = [485, 127]"] ;
150 -> 154 ;
155 [label="entropy = 0.771\nsamples = 536\nvalue = [415, 121]"] ;
154 -> 155 ;
156 [label="entropy = 0.398\nsamples = 76\nvalue = [70, 6]"] ;
154 -> 156 ;
157 [label="duration_ms <= 0.112\nentropy = 0.996\nsamples = 282\nvalue = [151, 131]"] ;
149 -> 157 ;
158 [label="entropy = 0.0\nsamples = 49\nvalue = [49, 0]"] ;
157 -> 158 ;
159 [label="acousticness <= 0.028\nentropy = 0.989\nsamples = 233\nvalue = [102, 131]"] ;
157 -> 159 ;
160 [label="entropy = 0.772\nsamples = 53\nvalue = [41, 12]"] ;
159 -> 160 ;
161 [label="entropy = 0.924\nsamples = 180\nvalue = [61, 119]"] ;
159 -> 161 ;
162 [label="duration_ms <= 0.21\nentropy = 0.958\nsamples = 6019\nvalue = [3732, 2287]"] ;
136 -> 162 ;
163 [label="duration_ms <= 0.065\nentropy = 0.962\nsamples = 5908\nvalue = [3625, 2283]"] ;
162 -> 163 ;
164 [label="danceability <= 0.81\nentropy = 0.196\nsamples = 66\nvalue = [64, 2]"] ;
163 -> 164 ;
165 [label="entropy = 0.0\nsamples = 61\nvalue = [61, 0]"] ;
164 -> 165 ;
166 [label="entropy = 0.971\nsamples = 5\nvalue = [3, 2]"] ;
164 -> 166 ;
167 [label="valence <= 0.431\nentropy = 0.965\nsamples = 5842\nvalue = [3561, 2281]"] ;
163 -> 167 ;
168 [label="instrumentalness <= 0.156\nentropy = 0.905\nsamples = 1536\nvalue = [1044, 492]"] ;
167 -> 168 ;
169 [label="entropy = 0.918\nsamples = 1476\nvalue = [985, 491]"] ;
168 -> 169 ;
170 [label="entropy = 0.122\nsamples = 60\nvalue = [59, 1]"] ;
168 -> 170 ;
171 [label="time_signature_4 <= 0.5\nentropy = 0.979\nsamples = 4306\nvalue = [2517, 1789]"] ;
167 -> 171 ;
172 [label="entropy = 0.948\nsamples = 259\nvalue = [95, 164]"] ;
171 -> 172 ;
173 [label="entropy = 0.972\nsamples = 4047\nvalue = [2422, 1625]"] ;
171 -> 173 ;
174 [label="acousticness <= 0.366\nentropy = 0.224\nsamples = 111\nvalue = [107, 4]"] ;
162 -> 174 ;
175 [label="loudness <= 0.855\nentropy = 0.087\nsamples = 92\nvalue = [91, 1]"] ;
174 -> 175 ;
176 [label="entropy = 0.722\nsamples = 5\nvalue = [4, 1]"] ;
175 -> 176 ;
177 [label="entropy = 0.0\nsamples = 87\nvalue = [87, 0]"] ;
175 -> 177 ;
178 [label="entropy = 0.629\nsamples = 19\nvalue = [16, 3]"] ;
174 -> 178 ;
}