digraph Tree {
node [shape=box] ;
0 [label="energy <= 0.466\nentropy = 0.58\nsamples = 3835\nvalue = [3304, 531]"] ;
1 [label="entropy = 0.141\nsamples = 1603\nvalue = [1571, 32]"] ;
0 -> 1 [labeldistance=2.5, labelangle=45, headlabel="True"] ;
2 [label="year <= 2005.5\nentropy = 0.767\nsamples = 2232\nvalue = [1733, 499]"] ;
0 -> 2 [labeldistance=2.5, labelangle=-45, headlabel="False"] ;
3 [label="entropy = 0.0\nsamples = 386\nvalue = [386, 0]"] ;
2 -> 3 ;
4 [label="speechiness <= 0.085\nentropy = 0.842\nsamples = 1846\nvalue = [1347, 499]"] ;
2 -> 4 ;
5 [label="instrumentalness <= 0.005\nentropy = 0.91\nsamples = 1508\nvalue = [1018, 490]"] ;
4 -> 5 ;
6 [label="entropy = 0.482\nsamples = 336\nvalue = [301, 35]"] ;
5 -> 6 ;
7 [label="duration_ms <= 0.112\nentropy = 0.964\nsamples = 1172\nvalue = [717, 455]"] ;
5 -> 7 ;
8 [label="entropy = 0.288\nsamples = 119\nvalue = [113, 6]"] ;
7 -> 8 ;
9 [label="entropy = 0.984\nsamples = 1053\nvalue = [604, 449]"] ;
7 -> 9 ;
10 [label="entropy = 0.177\nsamples = 338\nvalue = [329, 9]"] ;
4 -> 10 ;
}